15 10
tom 0.046630684 -0.019758822 -0.00631089 0.039143123 -0.027235914 -0.013175516 0.027348584 0.0005846504 -0.02984228 -0.016458655
jerry 0.02103292 0.006275615 -0.01719434 0.028628483 0.022284416 -0.03924055 0.016841797 0.014747523 -0.027742468 1.7211953e-05
cartoons 0.004544427 -0.018939082 0.030563477 0.035669085 -0.01048794 0.046523493 0.045188848 -0.018513566 -0.047583472 -0.0029618714
silent 0.012085282 0.026098654 -0.04577418 -0.04105101 -0.0073668403 -0.04428643 -0.045255255 0.003328757 0.0061703487 0.02195767
cat -0.017873537 0.04559222 0.034372542 0.033772245 0.03681543 -0.036265235 -0.03234348 0.005627219 0.023327466 -0.0179583
mouse 0.03498212 -0.023679977 0.029930506 0.014077208 0.034349643 0.013623315 0.023938466 0.015349136 0.03582713 -0.020238472
characters 0.0016052552 -0.02979924 -0.021352543 0.03836566 0.024209635 0.025735801 0.021950828 0.009397762 -0.04418342 -0.005246075
cartoon -0.009379892 0.009079154 -0.026415559 -0.0033933227 -0.010901696 0.022969944 0.038409017 -0.04674008 0.044462476 -0.033818346
series 0.02623604 -0.019156616 -0.017220002 -0.02900706 0.03471046 0.010275626 0.0076624113 -0.039145384 0.023471225 -0.0038122488
contain -0.0096416855 0.03771975 0.02558555 0.012380915 -0.012864119 0.0062715197 -0.008209193 -0.011629464 0.032828018 -0.032453727
words -0.028558284 -0.032540485 -0.04976858 -0.049751353 0.02536674 0.035853833 -0.023103146 -0.01746836 -0.0013028226 -0.00069724006
still 0.037265986 0.043886848 -0.02024977 -0.049103905 0.049364522 0.02415216 0.035961065 -0.014259559 0.040891185 -0.043064367
music 0.00220837 -0.048497114 0.02017634 -0.031902578 0.040178113 -0.029671414 -0.013272002 -0.015468685 -0.0012242609 0.021545947
sound 0.017917598 -0.0029605567 -0.0066204173 0.040244117 0.01114875 0.01777636 0.006701015 -0.02061636 0.027349187 -0.036283378
effects 0.017343573 0.02629149 0.04623007 -0.009759514 -0.009953849 -0.012805735 -0.04488631 0.032833636 0.013440637 -0.047510564
